nep4 3 Mg O H 
cutoff 5 3.5 155 54
n_max 4 4
basis_size 8 8
l_max 4 2 0
ANN 30 0
  7.3930150e-01
  1.0495014e-01
  4.3303588e-01
  1.6681607e-01
 -7.4592985e-02
  5.7504660e-01
  2.8448634e-02
 -6.4842240e-03
 -4.5811632e-01
 -4.1814703e-01
 -2.8882250e-01
 -1.1457751e-01
  1.2299803e-01
 -3.7306935e-01
 -6.9290891e-02
  1.9367339e-02
 -2.4898927e-01
  1.0091724e+00
  1.9360162e-01
  1.5341681e-01
  5.4107475e-01
 -3.4026302e-02
 -6.7358270e-02
  3.4419787e-01
  5.4620290e-01
 -4.7237659e-01
  1.1594819e-02
  3.4580797e-02
  5.3214088e-02
  7.7837117e-02
 -6.4052439e-01
 -1.8246351e-01
  5.0575262e-01
 -5.7845300e-01
  4.4094437e-01
  3.2186478e-01
  4.2327881e-02
  2.1749659e-01
 -1.0439533e-01
  1.9253600e-01
  4.5895610e-02
  7.3100269e-01
  2.2654897e-02
 -7.8692682e-02
 -4.4052675e-02
 -1.0568564e+00
 -6.6730216e-02
 -1.6437295e-01
 -6.4709403e-02
  8.6777911e-02
  1.9364463e-01
 -1.0297988e-01
  1.5635152e-01
  2.0845011e-01
 -1.2474328e-01
 -1.7682111e-02
 -1.5640480e-02
 -7.0907571e-03
 -2.1608641e-02
 -1.2725626e-02
  2.4920250e-01
 -1.1882252e-01
  2.2866854e-01
  3.5242826e-01
 -1.9717188e-01
  3.0845439e-01
 -3.3586077e-02
  1.1411316e-01
 -5.2599388e-01
 -1.1320471e+00
  1.1224681e-02
 -1.1168103e-01
 -1.2045075e-01
  4.9096581e-02
  1.5164714e-01
  1.1907198e-01
 -3.3118567e-01
 -1.6429450e-01
 -3.1833759e-01
 -2.8352208e-02
  5.5342013e-01
 -1.6240208e-01
 -2.2311799e-01
  1.6666803e-01
 -3.2478368e-01
 -7.4065708e-02
  4.6626851e-02
  7.8953076e-03
 -2.6353183e-01
 -8.4743395e-02
 -1.9903160e+00
 -1.3586905e+00
 -2.1447662e-01
 -4.9411801e-01
 -3.8749366e+00
  1.7934380e-01
 -2.2536452e+00
 -1.2283744e+00
  1.0798693e-01
  9.4062865e-01
  2.9202157e-01
 -2.2393732e-01
 -4.6493322e-01
 -4.8731782e-02
  6.5745455e-01
  6.2616980e-01
  2.8506318e-01
 -3.4403216e-02
 -2.3303381e-01
  7.2438323e-01
 -2.6895994e-01
 -1.2051948e+00
  2.4767470e-02
  3.3001450e-01
  1.3172899e-01
 -4.5213467e-01
 -1.9665548e-01
 -1.5339464e-02
  6.7198098e-02
  1.0372243e-01
 -1.5024933e+00
  2.6075619e-01
 -1.1695822e+00
  1.7727463e+00
 -1.8204396e+00
  1.4743389e-01
  6.5048927e-01
  9.0005535e-01
  9.1655165e-02
 -1.9696108e-01
  7.4781356e-03
  3.1959814e-01
  3.8694981e-01
  4.4700900e-01
 -1.2663732e-01
 -3.4379148e-01
  9.1611022e-01
  7.5448465e-01
 -5.7026011e-01
 -3.0247182e-01
  5.6145334e-01
 -7.6090091e-01
  2.4544387e-01
 -1.8960397e-01
  3.5529050e-01
 -1.8110731e-01
 -8.6601451e-02
  2.0924734e-02
 -6.7703277e-02
  6.5498978e-02
 -9.3616492e-01
  3.7929650e-02
  7.0289332e-01
  1.1998148e-01
  8.0645454e-01
 -2.7449884e+00
 -1.3794956e+00
  3.3929206e-02
 -1.3251424e+00
 -1.1343701e+00
 -6.9464409e-01
 -4.2106619e-01
  5.1616061e-01
 -2.0299058e+00
 -5.6803173e-01
  5.8496213e-01
  7.8633124e-01
  1.8338230e-01
 -1.4548524e-01
  1.1249913e+00
  3.6755246e-01
  1.1924318e+00
 -1.6106477e-01
  9.0721929e-01
  4.8596058e-02
 -6.9885696e-03
  3.1562296e-01
  1.1375909e-01
 -7.4869141e-02
  7.9982542e-02
  6.1431867e-01
 -1.9278733e+00
 -4.0763178e-01
  8.9804679e-01
  1.0219804e+00
 -2.3731544e+00
 -2.9818815e-01
  8.8276386e-01
 -9.4728476e-01
 -6.8992949e-01
 -1.4813104e+00
  6.9977957e-01
 -4.2888588e-01
 -7.7042139e-01
  7.2457606e-01
  4.1982919e-01
  1.0348046e+00
 -8.3215632e-02
  1.5501690e+00
  1.0009131e+00
  1.2674441e+00
 -5.3220809e-01
  2.7383626e-01
  7.6776892e-01
 -2.0380220e+00
 -9.2217043e-02
  1.9557889e-01
  9.0769738e-02
  2.8459458e-02
 -2.2447234e-02
 -7.9844356e-02
 -3.0563810e-01
 -2.5456637e-01
 -1.0537978e-01
 -1.1687506e+00
 -3.1951892e-01
  1.8914446e-01
  4.8114069e-02
  4.1425049e-01
  1.9487433e-01
  3.5613725e-01
  1.5737081e-01
  4.6561588e-02
  8.3274722e-02
  1.4739744e-01
  9.9720515e-02
  2.2346900e-01
  2.7215973e-01
 -1.6523111e-01
  1.3379117e-02
 -7.7344692e-01
 -1.0609770e-01
  3.3499353e-02
 -5.3595340e-01
  5.2872151e-01
 -2.3032602e-02
  1.4991152e-01
 -1.0005247e-01
  1.5170747e-01
  8.6588219e-02
  6.3990408e-01
 -4.1410443e-01
  9.9254322e-01
  1.4365199e+00
 -1.0712190e+00
  5.6988549e-01
 -1.6583031e-01
 -4.6583146e-02
 -6.8599844e-01
 -1.8766908e-01
 -3.0368018e-01
 -3.3903855e-01
 -2.6944345e-01
 -5.4019433e-01
 -1.6333285e-01
  4.9749961e-01
 -4.6170760e-02
 -2.9340789e-01
  5.1588929e-01
  2.8523722e-01
  1.1139187e+00
  2.0973162e-01
 -2.9174945e-01
  4.0491876e-01
 -8.9632332e-01
 -2.9685924e-02
  1.9800289e-01
  4.3413870e-02
  7.3426478e-02
 -1.3485432e-01
  2.0330760e+00
  1.5436038e+00
 -7.7960849e-01
 -7.0244169e-01
  5.9952475e-02
 -5.5467916e-01
 -2.2629137e-01
 -9.8289347e-01
  3.3127245e-01
 -7.0405859e-01
  4.4006258e-01
  1.5210608e-01
  3.9036900e-01
  6.7264920e-01
  2.9395057e-02
 -6.0574129e-02
  3.5513020e-01
  5.8835077e-01
 -4.1733903e-01
 -1.1635118e+00
  3.8127255e-01
 -4.4899651e-01
  1.0199732e+00
 -1.0758166e+00
 -9.6890725e-02
 -1.6886942e-01
 -1.2049121e-01
  2.7982265e-02
 -6.8834566e-02
  1.8193673e-02
 -2.4844535e-01
  1.2725262e-02
 -1.3176310e-01
 -6.1330187e-01
  8.9642443e-02
 -5.7960671e-01
 -2.3652259e-02
 -2.1089654e-01
  3.3521381e-01
  1.1572652e-01
  2.8154525e-01
  3.6446804e-01
  1.1048155e-01
 -2.3610958e-01
  1.8029015e-01
  3.4361026e-01
  1.5469711e-01
  1.2589966e-01
  5.0032401e-01
 -4.1569445e-01
 -2.8057089e-01
 -5.8855003e-01
  2.0722423e-01
 -2.9781958e-01
  3.7663019e-01
  1.2567299e-02
  2.6590621e-02
  1.3833095e-02
  1.2514533e-01
 -5.0991219e-02
 -1.3427985e+00
  2.1406336e+00
 -7.9954964e-01
 -4.9028787e-01
  1.8938309e+00
 -7.9046540e-02
 -2.2334038e-01
 -1.9767843e+00
  8.7262321e-01
  1.1891075e+00
 -4.6341345e-01
  8.7588805e-01
 -1.6555628e+00
  6.1718369e-01
 -1.0632325e-01
  5.7984149e-01
 -4.6537894e-01
 -7.1500635e-01
  1.3656117e-01
  6.2333935e-01
 -7.2467333e-01
  8.9410901e-01
 -1.0557929e+00
  2.6157030e-01
  2.5912467e-01
  1.8454475e+00
  7.5981624e-02
  2.0629531e-01
  9.2181951e-02
  1.4484198e-01
 -1.7638494e+00
  1.2560259e+00
 -1.4157392e-01
  2.1387773e+00
 -1.2611239e+00
  2.0183614e-01
  8.4705025e-01
  3.5387090e-01
 -8.3876938e-01
  8.1161094e-01
  3.7422723e-01
  7.4605221e-01
  8.3017701e-01
  8.7291318e-01
 -7.3041499e-01
 -1.8750907e-01
  5.7935554e-01
  1.2429504e+00
  3.9762470e-01
  3.7552452e-01
  1.9093931e+00
 -4.3438560e-01
  1.8325499e-01
 -9.9564385e-01
  2.1456769e-02
 -3.2003038e-02
 -1.7500201e-01
  4.9808240e-01
 -1.1668196e-03
 -1.1150060e-02
  1.0021775e-01
 -1.0821840e-01
  2.2494926e-01
  6.8159306e-01
 -3.1894848e-01
  3.1094566e-01
  4.3167416e-02
  1.2978777e-01
 -2.0968211e-01
 -1.6770175e-01
 -1.4258036e-01
 -9.1784783e-02
  1.8155597e-01
 -4.1703615e-02
 -5.5334222e-01
  1.0093874e-01
 -6.3545954e-01
  2.3511882e-01
 -4.0949342e-01
  1.9485557e-01
  2.4621484e-01
  1.7989820e-01
 -2.0714198e-01
  2.8503931e-01
 -3.0293286e-01
  1.6432709e-01
  9.2541650e-02
 -2.7626194e-02
  1.0786080e-02
  1.2723943e-02
  1.9267855e+00
 -3.6883590e-01
  9.0899658e-01
  3.2515040e-01
 -6.2796700e-01
  5.5766028e-01
  1.2039098e-01
 -2.2183894e-01
 -3.7227038e-01
 -6.4078860e-02
 -2.6720914e-01
 -2.6739499e-01
 -2.5119799e-01
 -7.7212930e-02
  4.2780191e-02
  4.7113907e-01
 -1.7953894e-01
 -1.9139606e+00
  4.5666704e-01
  4.1618466e-01
  7.9040682e-01
 -3.0721843e-01
 -3.9826271e-01
  4.2438397e-01
 -3.1672397e-01
 -6.4833306e-02
 -1.3428214e-01
 -5.7984009e-02
 -1.0378092e-01
  4.3094318e-02
 -6.9387323e-01
  1.9423462e+00
  2.2783828e+00
  1.0284048e+00
 -1.3031232e+00
 -6.6332245e-01
  4.3371639e-01
  5.0791597e-01
 -7.7781302e-01
  2.2903852e-01
 -9.2191863e-01
  2.4561069e+00
  8.7358959e-02
 -3.6460513e-01
  1.2868707e+00
  2.8435788e+00
  7.7794379e-01
  8.4127665e-01
  6.5995347e-01
 -1.7012595e+00
  1.7502741e+00
  1.0002277e+00
  6.3557619e-01
 -4.9559170e-01
 -2.8209035e+00
 -2.0433119e-01
 -5.6063133e-01
  1.1171614e+00
 -2.5018198e-02
 -9.7527087e-02
  1.8199956e+00
 -2.6755683e+00
  1.3851993e+00
  6.6782719e-01
 -1.5953110e+00
  1.1930156e+00
 -3.1336787e-01
  3.7111673e-01
 -1.1109278e+00
 -7.5194502e-01
  5.4016060e-01
 -5.8857238e-01
  1.7658111e-01
 -4.7853154e-01
 -2.6445994e-02
 -9.1025978e-02
 -4.8402646e-01
 -4.3164948e-01
  1.0608646e-01
  1.2419590e+00
  2.4415314e-01
 -2.4974546e-01
 -6.8918735e-01
  3.7269762e-01
 -9.6668923e-01
 -9.2649251e-01
  3.8997408e-02
 -7.0279472e-02
 -1.0155621e-01
  1.2781911e-01
 -1.6825461e+00
  4.9883571e-01
 -7.0000684e-01
 -5.9789163e-01
  7.7859122e-01
 -3.7190786e-01
 -8.5294977e-02
 -2.0358713e-01
  4.4654635e-01
  1.6245107e-01
 -1.3744569e-01
  1.6326497e-01
  5.6673963e-02
  9.6122861e-02
  1.1091793e-01
 -5.9525585e-01
  1.4146104e-01
  7.8501396e-02
 -2.2306332e-01
 -1.4946869e-01
 -4.1530585e-01
  3.6737332e-03
  2.6000357e-01
 -4.2111301e-01
  1.8022178e-01
  1.0620275e-01
 -2.8832648e-03
  1.7924048e-01
 -4.4197496e-02
 -1.2018319e-02
  1.5457842e-01
 -2.1029048e-01
  4.7320673e-01
  7.9927720e-02
  6.7164683e-01
  4.7549284e-01
 -8.4600963e-02
  1.2917531e-01
 -4.7781739e-01
 -4.5013208e-02
 -1.1019736e-01
 -1.6026558e-01
 -1.5007101e-01
 -2.2281285e-01
  4.6908431e-02
 -4.1535985e-01
 -1.0854622e-01
 -1.3637078e-01
  1.7567542e-01
  1.8080205e-01
  3.4865880e-01
  2.0626661e-01
  1.1015940e-01
  9.1737020e-01
  2.5868047e-02
  2.8018514e-02
 -3.8126312e-02
 -1.0737060e-01
  1.4315815e-01
  2.6996683e-02
 -1.3577039e+00
  2.2411580e+00
 -2.4196408e+00
  3.4005949e+00
 -2.3030586e+00
  1.0014384e+00
 -5.6273049e-01
 -4.6252838e-01
  4.5336002e-01
 -1.2608048e-01
  2.5883019e-01
  4.6443619e-02
 -1.5630304e+00
  8.5847569e-01
 -5.1240033e-01
  9.6946681e-01
 -6.8012774e-01
 -2.7870831e-01
 -7.0481092e-01
 -1.4512193e+00
 -4.5643888e-02
  1.7829217e+00
 -1.3620915e+00
 -9.1482782e-01
  1.9038561e-01
  1.4420503e-01
  1.9867659e-01
  1.0738356e-01
 -6.0215190e-02
  1.3278228e-01
  2.1495746e-01
 -1.2972218e-01
  2.1835631e-01
  2.0556815e-01
 -5.2146938e-02
  1.6996066e-01
 -1.7888170e-01
  4.4360372e-01
 -5.4585809e-01
 -1.2465021e-01
 -5.4573968e-02
 -7.8269303e-02
  8.2752213e-02
 -1.7620575e-01
 -6.2021121e-02
 -1.2872700e-01
 -1.5478279e-01
 -6.2705562e-02
 -3.9317780e-03
 -1.6375399e-01
  3.5791546e-01
 -1.0250288e-01
 -1.3890274e-01
  1.9128610e-01
 -2.1192643e-01
  1.9692793e-01
 -5.0489917e-02
  4.7682980e-01
  8.2289726e-02
  7.7804811e-02
  8.3142924e-01
 -9.2043228e-02
  7.2016817e-01
  1.6098790e-01
  2.3158917e+00
  7.7931285e-01
 -8.2213378e-01
  1.0238036e-01
 -1.1100605e+00
 -1.7415260e-01
 -4.8623961e-01
 -4.3647826e-01
  4.0749651e-01
  4.6289016e-02
 -2.9861462e-01
  1.2181969e-01
 -4.6106774e-01
 -2.0923486e-01
 -8.3546273e-02
 -1.7122014e-01
  5.5344743e-01
  7.2060275e-01
 -7.6026462e-02
  4.9158201e-01
 -9.0382004e-01
  1.2406997e-01
  2.9032713e-02
 -2.0512249e-01
  1.6674544e-03
  6.1013915e-02
  2.3830128e+00
 -3.0838954e-01
 -4.7192279e-02
 -2.7893436e-01
  1.1423796e+00
  3.1656292e-01
  1.0823466e+00
 -3.4904754e-01
 -5.7248777e-01
 -2.4303275e-01
 -1.2491108e-01
 -2.0418561e-01
  4.6463999e-01
 -5.9271380e-02
 -3.3012563e-01
  3.9386070e-01
 -5.6139541e-01
 -1.7250325e-01
  1.0169228e-01
 -3.9748639e-01
  4.1377434e-01
  3.7026572e-01
 -3.2319668e-01
 -5.3622774e-03
 -7.6995987e-01
  1.5561281e-01
  2.3485568e-01
  5.2957963e-02
  4.5256954e-02
 -3.3329914e-03
 -3.1304404e-01
  1.7842526e-02
 -3.3242610e-01
 -1.3221069e-01
  1.9903126e-01
 -2.6889649e-01
 -3.7856389e-02
  1.4199275e-01
  1.2408447e-01
  1.1890032e-01
  1.0320094e+00
  7.2839774e-02
  8.1166841e-02
  9.3032382e-02
 -6.8879223e-01
  4.1868370e-02
  1.1167668e-01
  2.6853916e-01
 -1.4805825e-01
 -6.2982231e-02
 -2.6364979e-01
 -2.1044405e-02
 -1.4226699e+00
 -3.4884810e-01
 -4.0886030e-01
  5.7626702e-02
  3.7162438e-02
  4.9942769e-02
 -1.2741321e-01
 -4.5726258e-02
 -5.0324100e-01
  2.0476980e+00
 -2.7954969e+00
  4.4372800e-01
  9.7666806e-01
 -1.2466193e-02
  6.0741685e-02
 -8.7539303e-01
  7.9841651e-02
 -5.5380046e-01
  1.1167634e-01
  2.8783467e-01
 -4.1587839e-01
  6.7533141e-01
 -1.5433311e-01
 -1.1159390e-01
 -2.8566197e-01
 -1.0531317e+00
 -1.1564232e+00
 -7.3893398e-01
 -8.8992810e-01
 -1.8977208e+00
 -5.6749225e-01
  1.6910236e-01
  2.3183591e+00
  2.6088077e-01
  2.9223818e-01
  2.9046208e-01
 -2.1104386e-01
  1.6465230e-02
  2.5395593e-01
 -2.2823974e-01
  1.5178607e-01
  1.7550428e-01
 -1.0254089e-01
  8.6137757e-02
 -7.0607886e-02
  5.7851955e-02
 -3.8872037e-02
  1.8091524e-01
  2.6649784e-02
 -5.1217716e-02
 -1.5954776e-01
 -7.2529480e-02
  7.9313748e-02
  1.2327008e-01
 -2.0493941e-01
 -4.3918829e-02
  1.9712557e-01
  1.9709088e-01
  1.8329254e-01
 -1.0847692e-01
  1.4846900e-03
  2.3000094e-01
  1.6526833e-01
  4.8379388e-02
 -4.8039213e-02
 -6.4724088e-02
  7.5305507e-02
  2.1486340e-01
 -2.5130250e+00
 -1.6408525e-01
 -1.7972883e+00
 -2.7961919e-01
  2.4434713e-01
 -7.0054430e-01
 -2.7627891e-02
 -2.0579562e-01
  1.1226244e+00
  3.5930634e-01
 -5.8768664e-02
  4.0152317e-01
  1.0652764e-01
  6.8150908e-01
  1.9461635e-01
 -4.4851932e-01
  5.4153126e-01
  5.6521982e-01
 -3.1793031e-01
 -1.2112247e+00
 -1.0107182e+00
  1.4061011e-01
  2.6620135e-01
 -3.4490418e-01
  1.4526666e+00
  9.7448245e-02
 -7.2560832e-02
 -1.6027822e-01
  1.5486677e-01
  2.3691892e-03
  1.4733336e+00
  9.6972644e-01
  4.7431377e-01
  5.9306955e-01
 -1.0911980e+00
 -1.9473221e+00
 -2.6109901e-01
 -2.5742978e-01
 -5.1743323e-01
  1.2040091e+00
  4.5972982e-01
 -3.1544635e-01
 -1.4101655e+00
 -9.7305584e-01
  7.8565919e-01
  1.0711484e+00
 -3.2449242e-01
 -2.6976383e-01
  2.8259137e-01
 -3.6986196e-01
  1.9045320e+00
 -2.6430247e+00
 -1.9199826e+00
 -1.2534720e+00
 -1.0308061e+00
  3.7189656e-01
  1.8199316e-01
  1.5340787e-01
  2.2289310e-02
 -1.0929471e-01
  1.5800838e+00
 -1.3643074e-01
  4.8451126e-01
 -9.8113823e-01
 -9.3238217e-01
  9.0579426e-01
  3.5379469e-01
 -6.9923408e-02
 -7.9106086e-01
 -6.8276185e-01
 -7.0485276e-01
  3.8822837e-02
 -7.6001875e-02
 -7.9168385e-01
 -4.3213525e-01
  1.3456233e-01
 -5.0809985e-01
 -6.3256353e-02
 -8.1616439e-02
 -2.5394166e-01
  6.0197753e-01
 -8.3598113e-01
 -1.0686409e-01
  1.0492754e+00
 -1.4866242e+00
 -6.4928257e-01
 -9.9871289e-03
  1.3706997e-01
  1.5813356e-02
 -4.9286258e-01
 -1.0216325e-01
 -2.1692102e-01
  2.0457878e+00
  2.4246895e-01
  3.0824906e-01
  2.2257914e-01
  1.2466146e-01
 -7.6097704e-02
 -2.3028073e-01
 -9.1587469e-02
 -5.7805803e-02
 -1.2370182e-01
  1.8945548e-01
 -7.5771257e-02
 -3.5147566e-02
  1.1139944e-01
 -6.5765053e-02
 -4.3996546e-01
  2.5671327e-01
  2.3002847e-01
  5.2452612e-01
  1.0437942e-01
 -1.4636379e-01
  1.2440484e-01
 -1.2422106e-01
  6.8701282e-02
  1.5609053e-01
  5.3892028e-01
  3.2356679e-02
  6.7337140e-02
 -1.3915540e+00
 -1.7829212e+00
 -1.1214761e+00
  1.3818463e+00
  1.1374310e+00
  3.4212679e-01
  1.6097599e+00
  1.5628598e+00
 -1.7906396e-01
  1.4615618e+00
  1.2710130e+00
 -1.6801126e+00
  7.4238080e-01
 -1.1678334e+00
 -1.5206716e+00
  7.9477561e-01
 -3.0641952e-01
  1.3934804e+00
 -1.2628080e+00
 -1.8706167e+00
 -1.1595081e+00
 -1.3720751e+00
 -8.8124454e-01
  1.8742949e+00
 -1.4440833e+00
 -1.5383416e+00
  8.1956530e-01
 -6.9791824e-01
 -1.0686693e+00
 -1.2127397e+00
 -1.5241380e+00
 -8.1998646e-01
 -5.9134734e-01
  2.4545360e+00
  2.3567309e+00
 -6.7302412e-01
 -1.6487321e+00
  1.9401126e+00
 -5.1532757e-01
  2.7912979e+00
  8.9375424e-01
 -1.9370080e+00
  3.8206022e+00
 -6.3038492e-01
 -3.1417193e+00
  3.8909404e+00
 -1.3091036e+00
  2.0293207e+00
 -9.9988484e-01
 -1.4565625e+00
 -4.1857275e-01
 -3.0972447e+00
 -1.4731487e+00
  1.7308294e+00
 -1.3654782e+00
 -7.0570546e-01
  2.1528482e+00
 -1.7767361e+00
 -2.2262652e+00
 -5.9904832e-01
  1.0451630e+00
 -1.2451178e+00
 -2.2790578e-01
 -5.2399409e-01
 -2.2259597e-02
 -1.5493785e+00
  6.9056177e-01
 -3.6292553e-01
  4.5875758e-01
 -1.1111480e-01
  4.9635258e-01
 -2.3712076e-01
  7.2456181e-02
  2.0635569e-01
  3.0568728e-01
 -2.0178134e+00
 -1.6728447e-01
 -2.6716065e-01
  5.0289512e-02
 -7.6613322e-02
  1.2663237e+00
 -1.8048277e-01
 -3.8473517e-01
  6.4664267e-02
 -8.5532412e-02
 -7.9729654e-02
 -1.2419340e-01
  4.7137480e-02
 -8.3799504e-02
  9.5954724e-02
 -8.3374131e-01
  4.2515883e-01
  1.1792711e+00
 -8.7343347e-01
  5.6777030e-01
  1.7676626e-01
  1.0580713e+00
 -2.5988260e-01
 -1.3989678e-01
 -6.6864210e-01
 -1.8042849e-02
  7.0060015e-01
 -8.1647083e-02
  2.8876215e-01
 -1.5085246e-02
 -5.5198902e-01
  7.1075082e-01
  6.7374748e-01
 -7.9368889e-01
  3.2878941e-01
  1.8810965e-01
  4.2152172e-01
  7.2283798e-01
 -8.4550558e-03
 -8.0501959e-02
 -1.9363673e-01
  1.7202839e-01
 -3.3137731e-02
  2.5622785e-01
  7.2550969e-03
  1.6930748e+00
 -2.2438221e+00
  2.1128287e+00
 -3.2893631e-01
 -7.0632800e-02
 -2.2353210e-01
  1.1675526e+00
  7.1694404e-01
 -1.4420879e-01
  4.9251994e-01
  9.6125469e-02
 -9.2988199e-01
  4.2989868e-01
 -1.0499076e+00
  8.4710948e-02
 -9.0135676e-01
 -6.4052969e-01
 -4.5416117e-01
 -7.0368513e-02
 -2.1647413e+00
 -2.1178837e+00
 -1.0499481e+00
  5.3835994e-01
  8.0072051e-01
 -7.1720898e-01
 -9.0039060e-02
  2.0201210e-02
 -2.1397780e-01
 -2.0672805e+00
 -2.3662306e-01
 -2.4003048e+00
  2.0574081e+00
  8.8537872e-01
 -1.1458790e+00
  1.4744182e+00
 -1.9356629e+00
  1.4690671e+00
 -2.2012601e+00
  6.6421217e-01
 -2.0639566e-01
 -4.3173701e-01
  5.0234877e-02
 -1.3998486e+00
 -6.2270876e-02
 -1.2114672e-01
 -5.2993406e-02
  1.7665783e+00
 -1.7062230e+00
  5.9265834e-01
  1.1242269e+00
  1.6920198e+00
  1.5847319e+00
  1.1309364e-01
 -3.8693249e-01
 -8.2057351e-01
  1.1371492e+00
  4.8125950e-01
  6.2941128e-01
  6.1204243e-01
 -1.5421741e-01
 -1.2516403e+00
  1.4000620e+00
 -1.0157858e+00
 -3.4480315e-01
  1.1697489e+00
 -1.0446188e+00
  6.6952509e-01
  3.7369832e-01
  7.8401250e-01
  8.7713517e-02
 -6.3733172e-01
  6.7410827e-02
  2.5912800e-01
  8.7524187e-03
  1.6841188e-01
  2.0314850e-01
  9.2073965e-01
  3.0846071e-01
  2.9320741e-02
  3.4761605e-01
  4.5650876e-01
  5.1107591e-01
 -5.2227324e-01
 -2.5840040e-02
  1.6455057e-01
  6.0867451e-02
 -2.2798616e-02
  8.1275709e-02
 -1.0587959e-01
  4.3581121e-02
 -8.3445913e-01
  7.9088080e-01
 -1.3707765e+00
  6.6747224e-01
  1.2828079e+00
 -1.6783655e+00
  3.1908974e-01
  8.9060843e-01
  1.8624848e+00
  5.1325178e-01
  1.2363917e-01
  3.2684240e-01
  4.9320233e-01
  8.2056439e-01
  3.0504087e-01
 -2.5965565e-01
  1.3006007e-02
 -1.2073760e+00
  3.5569948e-01
  1.3290165e-01
 -4.7171172e-01
  2.8302974e-01
  1.1049094e+00
  1.1067484e-01
  2.0138265e-01
 -5.7040584e-01
  2.9303816e-03
  3.0410990e-02
 -2.6941848e-01
  3.0432103e-02
 -4.7133723e-01
 -1.1587422e-01
  1.7640254e-02
  6.3035154e-01
  8.8412613e-01
  4.0212683e-02
 -1.3925741e+00
  2.3403217e-01
 -2.4559213e-02
 -1.0916305e-01
 -2.0285477e-01
  1.6081163e-03
 -4.5814756e-02
 -8.8719040e-02
  1.2634844e-01
  3.8996303e-01
  1.6970448e-01
  1.8842207e-01
  1.1450662e-01
  1.8468855e-02
  1.1825711e-02
 -7.6392986e-02
 -1.8664473e-01
  1.1749342e-01
 -1.5867892e-01
  1.0130678e-01
  1.0530372e-01
 -6.6513352e-02
  1.2113994e-01
 -4.2380974e-02
  3.7515848e+00
 -1.8837575e+00
 -2.5069242e+00
 -4.9791686e-02
  1.0165871e+00
 -1.9233726e+00
 -1.7502527e+00
  8.6701512e-01
  5.5318403e-01
 -2.5006604e-01
 -3.2172000e+00
 -1.1304477e+00
  1.3764772e+00
  4.5551762e-01
 -1.5130560e-01
 -6.4245820e-01
 -1.3360051e+00
  1.0412905e+00
 -3.9033556e-01
  2.2372274e-02
 -6.1478722e-01
  2.5891429e-01
  1.3213842e+00
 -5.4930770e-01
 -2.7673358e-01
 -4.5611763e-01
 -4.6730661e-01
  1.8961905e-01
  5.6259805e-01
 -1.5376019e-01
 -2.0406826e-01
  6.8199492e-01
  1.3276412e+00
  1.9351339e+00
 -2.2895624e-01
 -6.1681539e-02
 -1.1099833e+00
 -2.4830703e-01
 -1.4963470e-01
  5.2782619e-01
 -1.2522005e-01
 -7.6060712e-01
  1.7334455e-01
  6.7103887e-01
  1.0878063e-01
 -1.5867497e+00
  8.7984413e-02
 -3.0889735e-01
  6.7524838e-01
 -3.1215882e-01
 -3.3149502e-01
 -7.1145517e-01
  9.9613935e-01
  2.4211507e-01
 -3.9857268e-01
 -1.3535348e-02
 -2.5227234e-01
  7.5913914e-02
  9.4963655e-02
 -6.2667347e-02
  3.8692221e-01
 -7.0149589e-01
 -4.2894122e-01
  9.3992084e-01
 -1.3463048e+00
  5.7749963e-01
 -4.6624747e-01
 -3.5228629e-02
 -2.4501091e-01
 -4.8895791e-01
  3.6093593e-01
 -1.1702839e-01
  8.4821843e-02
  1.0854464e-01
  5.4969322e-02
  2.3952934e-01
 -3.1447485e-01
 -2.1408151e-01
 -1.8416616e-01
 -2.9703826e-01
  2.2968108e-02
 -2.4497406e-01
 -2.1521030e-02
 -3.3571254e-02
  8.1745535e-02
  1.4151075e-02
 -3.4502529e-02
  1.1400865e-01
 -1.7341867e-01
  8.7990455e-02
 -8.2411325e-01
  1.0807030e+00
  1.8686390e-01
  5.0530666e-01
  1.2501829e+00
 -2.5732290e-02
 -7.7704489e-01
  3.5019439e-02
  6.1514914e-01
 -2.7365537e-02
 -4.3089929e-01
 -8.2183838e-02
  1.7104447e-01
  1.2282696e-01
  2.9659858e-02
  6.8957973e-01
  2.6280561e-01
  4.0900028e-01
  3.4673163e-01
  1.9586000e+00
 -3.5689345e-01
  7.9313286e-02
 -5.5195487e-01
 -2.4127202e-02
 -2.8464124e-01
  1.8845516e-01
 -9.3882559e-03
 -8.5104749e-02
  1.1316574e-01
  1.3458380e-01
 -8.3684397e-01
  3.7136517e+00
  1.2518623e+00
 -1.0832621e+00
 -2.6585311e-01
  1.2794900e+00
  6.6508263e-01
 -5.3924865e-01
  3.7992272e-01
 -6.3872796e-01
  4.5671442e-01
 -9.0475821e-01
 -9.5974851e-01
  1.5140228e+00
  3.6200050e-02
  2.3733263e+00
  1.6478124e+00
 -1.9013277e+00
 -2.4870372e+00
 -5.1795906e-01
  7.6764864e-01
  1.1432409e+00
 -1.1924211e+00
 -1.3107349e+00
 -1.5184113e+00
  7.8036165e-01
 -1.0058101e-01
 -2.1633784e-01
  5.5699229e-01
 -6.7585289e-02
  5.6376453e-03
 -1.0226580e+00
  2.2970629e-01
  1.0089316e-01
  4.0181106e-01
  1.6200919e-01
  6.8097510e-03
 -1.1052995e-02
 -4.0011954e-02
 -1.6104786e-01
  2.1592107e-01
  5.6762874e-02
 -6.9658592e-02
  3.2229941e-02
 -2.1625112e-01
  1.7308472e-01
 -4.0993355e-02
 -8.6991549e-02
 -5.0063469e-02
  7.3330647e-01
  1.2288585e-01
 -1.3172708e-01
 -1.3374451e+00
  8.5723519e-02
  1.6975239e-02
 -7.4774429e-02
  4.5473713e-02
  9.3449265e-02
  3.4807324e-02
 -5.7723422e-02
 -1.0845368e+00
  1.3144089e+00
  3.4082830e-01
  6.8500119e-01
 -9.6333623e-01
 -6.2225908e-01
 -7.8595445e-02
  2.3601441e-01
  1.5602552e+00
  5.8426499e-01
 -2.3007424e-01
 -1.7043103e-01
  3.8249004e-01
  7.6511914e-01
  2.9718757e-01
 -1.0185397e+00
  2.1369246e-01
  5.4834789e-01
 -2.4892609e-01
  5.1073320e-02
 -3.5584909e-01
  1.3753776e-01
 -4.8134062e-01
 -3.0724967e-01
 -4.0193272e-01
  2.1106496e-01
 -2.4723744e-01
  3.0692555e-02
 -3.5869598e-01
  2.4236350e-01
 -2.4723248e+00
  1.7106812e+00
  1.1260430e+00
  4.2244381e-01
 -2.1987511e-01
 -1.0612700e+00
 -5.9781408e-01
  1.3106972e+00
  9.1840726e-01
 -6.2253047e-02
 -9.8372519e-01
 -4.5887607e-01
 -6.9921476e-01
  7.2618538e-01
 -6.0009342e-01
  3.7500849e-01
  5.1163924e-01
  4.6264812e-01
 -1.1920163e-01
 -4.2082977e-01
  1.7067707e+00
  8.0089235e-01
 -5.7780093e-01
  2.7957171e-01
 -1.5759873e-01
  9.1473669e-01
  2.1685759e-02
  7.2693840e-02
  1.1253948e+00
 -1.5108979e-01
  2.7804110e+00
 -1.2386843e+00
 -3.7012395e-01
 -7.2441024e-01
  1.8906187e+00
 -2.0129337e+00
 -1.9810326e+00
 -4.3704894e-01
  1.2351243e+00
  1.3072900e+00
 -1.4091655e+00
 -1.5651989e+00
 -4.4120356e-01
  4.5852840e-01
  7.4329907e-01
 -2.0014760e+00
  2.3235214e-01
  1.7366105e+00
  5.5745918e-01
  1.2156129e+00
 -1.5360605e+00
 -7.9056430e-01
  2.4838898e+00
  1.0893208e+00
 -1.1983496e+00
  4.7401413e-01
 -3.0208921e-01
  1.0774870e-01
  9.1973029e-02
  1.7977384e-01
 -1.8171105e+00
  4.3180118e+00
 -3.4007382e-02
  1.8403111e+00
  1.6885060e+00
  9.3054873e-01
  8.3313698e-01
 -1.8209900e+00
  4.9453574e-01
 -6.6200364e-01
  2.9502394e+00
  1.0933034e+00
 -1.8811786e+00
 -1.9485478e+00
 -6.9810730e-01
  2.3923924e+00
  8.9460754e-01
 -1.1184385e+00
  1.8137327e-01
  9.4240391e-01
  2.7215617e+00
  2.0807543e+00
 -7.2010779e-01
 -4.5206758e-01
 -1.7194726e+00
  1.1618422e+00
  3.5755474e-02
  5.8648136e-02
  3.3113611e-01
 -2.9313293e-01
  4.7914583e-02
 -1.6211464e-01
  4.2046848e-01
  2.3959920e-01
  3.7770405e-01
  3.2694042e-01
  1.7941335e-01
 -1.9238165e-01
 -9.1482893e-02
 -2.1149203e-02
  4.8220744e-03
 -4.1253850e-02
 -1.6771577e-02
 -1.0595143e-01
  1.5672505e-02
  4.7311679e-02
  6.6683620e-02
  2.2403342e-01
  4.0625561e-02
 -8.0162600e-02
  2.1911749e-01
 -1.2082613e-02
  1.3888461e-03
 -1.7215277e+00
  2.7165392e-02
  2.1682407e-01
  1.0615084e-01
 -1.0733795e-01
  1.3266201e-01
  2.1707507e-02
  2.4947584e-02
 -2.7548972e-01
 -7.2313762e-01
  5.5051523e-01
 -7.6705682e-01
 -3.8970876e-01
  3.0880395e-01
 -9.2220289e-01
  5.3271377e-01
 -1.3490252e-01
 -9.4050862e-02
  2.6414543e-01
  6.3307405e-02
  4.0029094e-01
  9.0784684e-02
 -3.5956398e-01
 -7.4864298e-02
 -3.4527367e-01
 -1.0314286e-01
  2.3409639e-02
 -8.0466574e-01
  1.2444947e-01
  2.8646901e-01
  1.1287674e-01
 -4.8083767e-02
 -2.9588547e-02
 -1.9099724e-02
 -3.9388299e-01
 -1.3913156e-01
 -3.0523276e-01
 -2.4809530e+00
  4.0433965e+00
  1.1784045e+00
  6.2908810e-01
  3.5159042e-01
 -1.9800690e-01
  1.9732751e-01
 -2.9759040e-01
  1.1747218e+00
 -4.3819275e-02
  1.5072238e-01
 -1.1197807e+00
 -2.5491387e-01
  2.2164404e+00
  3.0376443e-01
 -8.4747595e-01
 -1.1268308e-01
 -9.8905116e-01
  3.9031345e-01
  2.5348940e-01
 -2.7893835e-01
  1.8411865e+00
 -3.1872323e-01
 -8.4438252e-01
 -1.1079887e+00
  6.4705443e-01
 -3.4821627e-01
  2.1297956e-01
 -1.5454051e-01
  1.4759625e-01
  1.0433099e+00
 -1.7053349e-01
 -3.5348380e-01
 -6.0836114e-02
 -2.0867953e-02
 -3.4725487e-01
  5.5277683e-02
  1.4572318e-01
  6.6421099e-02
  1.1596143e-01
 -1.5611403e-01
  1.2155130e-01
 -2.5322190e-02
  1.8062851e-01
 -5.9680775e-02
 -4.4927195e-01
  9.8339230e-01
 -1.8818828e-01
  1.1517679e-02
 -8.1404084e-03
 -1.6595416e-02
  2.2613403e-01
  1.4843272e-01
 -1.9163833e+00
 -1.4414884e-02
 -4.5556631e-03
 -9.2383809e-02
  1.1920393e-01
 -1.2393884e-01
  5.4722659e-02
  5.8986574e-01
 -1.0572345e+00
 -1.8141692e+00
 -1.3621329e+00
  7.5178689e-01
 -1.0355505e+00
  1.6686900e+00
  1.2551242e-01
 -1.3516517e-01
 -2.3267217e-01
 -1.0686909e+00
 -4.5913267e-01
  3.0213131e-02
 -5.3073887e-02
  6.4745277e-01
  1.4979419e-01
  1.9211912e-01
 -4.7226602e-01
  2.4348518e-01
  9.4326299e-01
 -1.4727795e+00
  4.6663687e-01
 -3.0747721e-01
  2.0634711e-01
  2.5033548e-01
 -3.5584964e-02
  4.5836478e-01
 -8.4177785e-02
 -1.8043236e-01
  1.8043932e-01
 -1.6536409e+00
  6.1451559e+00
  3.7491288e+00
  6.4113572e-02
  4.9695212e-01
  3.9943656e-01
  2.0675380e+00
 -7.2561771e-01
  1.1563327e+00
 -1.8823415e-01
  1.2838982e+00
  2.6597338e+00
 -1.2612827e+00
  9.0921617e-01
  5.4346901e-01
 -4.1994750e-01
  2.7947918e-01
 -8.9173406e-01
  6.9932562e-01
 -7.8041697e-01
 -2.6169384e-01
  1.5697780e+00
 -8.1468147e-01
  1.0099014e+00
 -1.3577882e+00
 -7.7591234e-01
 -7.1129698e-01
 -4.7632724e-01
 -6.2881309e-01
  2.0227215e-01
  3.8248246e+00
 -2.5696425e+00
 -3.1754315e+00
 -2.2331317e-01
  7.1122074e-01
  2.9340985e-01
  7.2002274e-01
 -1.9149671e-01
 -2.4292884e+00
  6.1589652e-01
  4.5418835e-01
 -1.2406106e+00
 -3.9568821e-01
 -1.0818665e+00
  3.7548181e-01
 -1.2294375e+00
 -9.8319679e-01
  1.0867893e-01
  5.1871163e-01
  1.7227241e-01
  4.2467189e-01
 -1.5285852e+00
  5.2496392e-01
 -4.3191060e-01
  4.6318278e-01
 -3.9072612e-01
  4.3007664e-02
 -7.7384800e-02
 -6.3759524e-01
  1.1049425e-01
 -1.6372524e+00
  1.0718064e+00
  1.2611541e+00
 -8.1456673e-01
 -6.5196401e-01
  1.3203877e+00
  4.0653563e-01
  1.8356409e+00
  2.0324901e-01
 -1.0997729e-01
  4.3280739e-01
  2.8974763e-01
 -3.7534390e-02
 -1.8713954e-01
 -1.9918467e-01
  1.2418996e+00
 -8.1271470e-01
  9.6306878e-01
 -3.0009297e-01
  1.2944545e-01
  1.9289793e-01
  2.1781603e-01
  1.0763688e-01
  3.6622369e-01
  3.0152993e-02
 -6.4557038e-02
  1.3330996e-01
  2.4912674e-03
  3.7959844e-02
  3.3307960e-04
  1.3539599e+00
 -3.1225067e-01
 -5.4178864e-01
 -1.6774118e+00
 -1.2743224e+00
 -3.7299123e-01
 -3.3654127e-02
 -3.7714526e-01
 -7.0474982e-01
 -7.7175379e-02
  7.7491844e-01
 -7.5251080e-02
  3.8356413e-04
  4.4748470e-01
 -1.7738190e-01
 -2.3204079e+00
  2.7502564e-01
 -1.7373644e-01
 -6.4168938e-02
 -6.1863405e-01
 -3.8812184e-01
 -4.1452461e-01
  1.7352635e-01
  1.0426666e+00
  4.3916285e-01
 -6.2094337e-01
 -1.4358221e-01
 -1.6307791e-01
 -2.7033636e-01
  1.3687727e-01
  1.0268041e+00
 -7.3561236e-02
  4.8252848e-01
 -5.9997785e-01
  8.8312970e-03
 -1.5893050e-01
 -3.3782828e-01
 -2.9568380e-01
 -1.1627398e-01
 -2.7619484e-01
  2.6376578e-01
 -2.7720798e-02
  4.5021348e-02
 -8.2995810e-02
 -1.1653690e-01
 -8.3742142e-01
 -9.1927364e-02
  1.2460214e-01
  3.1588316e-01
 -1.1143632e-02
  9.5814399e-02
 -3.1529385e-01
 -8.2453322e-03
  1.2374914e-01
 -4.2765040e-02
 -8.5363425e-02
  3.6760193e-01
 -1.4244649e-01
  1.3791470e-01
 -1.1107749e-01
  7.7091314e-02
  7.3366630e-01
  5.5163759e-01
 -6.3242096e-01
  7.3628420e-01
 -9.2436947e-02
  1.3361669e-01
 -2.1675701e-01
 -7.6259390e-02
 -6.5348315e-01
  6.6597313e-02
  9.3340643e-02
 -6.2616728e-02
  3.3547144e-02
 -1.1798188e-01
 -5.9548326e-02
  1.2412475e-01
  3.5125598e-02
  3.4576561e-02
  1.3568380e-01
  6.5934902e-01
 -6.3111231e-02
  5.6456257e-02
 -8.2226261e-02
 -4.2763226e-02
  5.9315547e-02
  3.1218985e-02
 -1.4587198e-01
  9.3306594e-02
  5.3870552e-03
 -2.2795701e+00
  4.1247091e+00
  1.3904241e+00
 -7.4279898e-01
 -1.4009984e+00
  3.9390334e-01
  3.7323594e-01
 -1.0118864e+00
 -8.9571066e-02
  4.2304122e-01
  3.0897817e-01
  1.1782988e+00
 -1.6023210e+00
  1.5266364e+00
 -1.6131556e-01
 -8.6698556e-01
  1.4771913e-01
 -7.3665649e-01
  6.6724360e-01
 -1.0553485e+00
 -3.6288056e-01
  4.5772281e-01
 -1.1482308e+00
 -5.0957936e-01
  7.1584925e-02
 -6.9629140e-02
 -2.2713712e-01
 -2.0368209e-01
 -2.0040199e-01
 -1.7087856e-01
  9.3948230e-02
  1.6820244e-01
 -9.2668027e-02
 -2.0834250e+00
 -1.5621834e-01
 -3.8559324e-01
  6.7821994e-02
  6.0333616e-01
 -9.5106781e-02
  1.1699001e-02
 -1.9205171e+00
  2.7160518e-02
  1.3487262e-02
  1.4513855e-01
  3.3997950e-01
 -2.0735465e-02
 -7.6721780e-02
 -3.3420265e-02
  1.2772210e-02
  4.5142118e-02
 -1.2318615e-01
 -1.6260591e-01
 -7.3045515e-02
 -3.1182709e-01
  1.9386403e-01
 -7.1810760e-02
 -8.9883141e-02
  3.3613477e-02
  3.6971394e-02
 -2.0068696e-02
  9.9121785e-01
 -8.2697147e-01
 -1.3452104e+00
 -1.1924066e-01
  1.0041728e+00
  2.0330295e-01
 -1.8288867e+00
 -2.1134849e+00
 -2.1406686e+00
  1.1831423e+00
 -7.7507204e-01
 -8.6433953e-01
 -1.7062408e+00
  4.6086368e-01
 -8.2191610e-01
  7.3413223e-01
  2.1395274e-01
 -2.0364087e+00
 -2.6602247e-01
  1.3007107e+00
  5.2737129e-01
  1.1101087e+00
  1.6248184e+00
  2.1939956e-01
 -7.7576870e-01
  8.0550265e-01
 -1.9307300e+00
 -1.0299797e+00
 -6.2797403e-01
  1.2277584e+00
  2.2400882e+00
 -1.5423830e+00
 -4.0496650e+00
 -2.5861206e+00
  4.5378929e-01
  5.9750593e-01
 -1.3654959e+00
 -3.0328374e+00
 -3.5348155e+00
  1.4528875e+00
 -8.6304486e-01
 -5.3459902e+00
 -1.3708365e+00
  1.1505802e+00
 -3.6155038e+00
  2.4942298e+00
 -2.3417072e+00
 -2.7536654e+00
  2.9359743e-01
  1.6668510e+00
  2.4422538e-01
  3.0146856e+00
  2.2529154e+00
  2.0961938e+00
 -8.4016579e-01
  2.2645547e+00
 -2.0971572e+00
 -8.6899841e-01
 -1.9913983e+00
  8.0879956e-02
 -1.1743344e+00
 -2.8353885e-01
  5.7588208e-01
 -1.5192399e+00
  1.8224699e+00
  2.2639306e-01
 -1.3035345e+00
 -2.3802271e+00
 -4.4324851e-01
 -3.7804821e-01
 -1.9900587e+00
 -2.2673203e-01
  9.7263701e-02
 -4.3635109e-01
  6.4413571e-01
 -1.6246867e+00
 -5.3541541e-01
  2.9147121e-01
 -6.5816337e-01
  1.0144006e+00
 -1.2039229e+00
  7.7147073e-01
 -2.8358737e-01
  3.1227368e-01
  1.3045560e+00
 -1.0163873e-01
 -5.6043959e-01
  1.9849768e-01
  3.6749970e-02
 -3.7630729e-03
 -7.6852363e-01
 -1.7781536e-01
 -8.3021563e-01
  1.3364282e-02
  8.3632988e-01
  8.6717796e-01
  1.0045899e+00
 -1.2549729e+00
  1.8650783e+00
 -1.1996783e+00
 -5.0548679e-01
  1.8201605e+00
  2.8101525e-01
  6.4462505e-02
  7.0720446e-01
  1.6977789e-01
 -4.2863905e-01
  1.3047427e+00
  6.8291321e-02
 -5.8166152e-01
  6.7070588e-03
 -2.2142696e-01
  4.0425971e-02
  4.6925142e-01
  5.4364049e-01
  4.2729575e-02
 -3.7909994e-01
  3.0873549e-01
  3.0063298e-01
 -3.9262858e-01
 -3.5304878e+00
  1.2987874e+00
 -2.4267011e+00
 -1.1225922e+00
 -1.0114398e-01
  5.3644609e-01
 -1.4378548e+00
 -1.5999590e+00
  1.7369578e+00
 -2.8771234e-01
  2.6712620e+00
  1.7145740e+00
  1.3737320e+00
  1.0923510e+00
 -4.7969425e-01
  6.6696125e-01
  2.3492458e+00
 -1.0341201e-01
  6.6348493e-01
 -1.9289364e-01
  4.7731397e-01
  1.8500369e+00
  8.2185525e-01
  1.2513516e+00
 -2.4016270e-01
 -3.3561504e-01
 -1.7006139e-01
  5.0002313e-01
  4.0976754e-01
 -8.2023293e-02
  6.1652094e-01
 -7.1263325e-01
 -4.9483332e-01
 -5.7139152e-01
 -7.7644867e-01
 -1.0668590e+00
 -9.8963656e-02
  8.4856880e-01
 -8.0399323e-01
  6.0400337e-01
 -5.9476602e-01
 -1.1631160e-02
  3.2525703e-01
 -1.6700350e+00
 -4.7096667e-01
  4.0987825e-01
 -1.2327964e+00
  1.2773852e-01
 -2.7148739e-01
 -1.2273405e+00
 -5.9126210e-01
  8.1465656e-01
  3.4783196e-01
 -5.7928574e-01
 -1.1241753e+00
 -2.8164640e-02
 -2.8433061e-01
 -4.0983298e-01
 -2.9997659e-01
  1.2371182e+00
 -2.1524978e+00
  3.1944555e-01
 -2.2444816e-01
 -6.2174910e-01
  1.1313906e+00
  4.1507471e-01
 -4.3203148e-01
  1.6256492e+00
  8.0449387e-02
 -1.1180532e-01
  9.4288582e-01
 -1.0051169e+00
 -2.9868445e-01
  1.1536754e-01
  9.2188370e-01
 -2.2723189e-01
 -1.8262571e-01
 -4.6322575e-01
 -3.8878402e-01
 -5.9610510e-01
 -2.6840910e-01
  2.1023014e-01
  3.3099055e-01
 -5.1874143e-01
  4.1842842e-01
  2.5319609e-01
  4.4737202e-01
  1.1423189e-01
 -2.0793545e-01
 -2.0197110e-01
  1.0841492e+00
 -1.7156038e-01
 -5.2459753e-01
  1.2679539e-03
  1.6753627e+00
 -2.5763521e-01
  1.2043793e+00
 -4.0224099e-01
 -3.5129419e-01
 -1.5440878e-01
  9.0653324e-01
  1.1167645e+00
  3.8326156e-01
 -5.2467579e-01
  1.5847747e+00
  8.7958801e-01
  5.4047668e-01
  1.0158601e+00
 -9.5099735e-01
  6.4387089e-01
  4.5023319e-01
  3.7369481e-01
  1.1916220e+00
  3.8123235e-02
 -5.0657749e-01
  9.3588077e-02
 -5.4809147e-01
  7.9497397e-02
  9.0401405e-01
 -7.6508015e-02
  6.2669098e-01
 -4.1386914e-01
 -4.5853004e-01
 -9.5507437e-01
  7.5612545e-02
 -6.5120709e-01
 -2.1002722e+00
 -1.2560903e+00
 -2.4664997e-01
 -9.3756121e-01
 -1.1842934e+00
 -7.2935480e-01
 -1.9020050e+00
 -4.9426806e-01
 -1.3571113e-01
 -2.6179702e+00
  1.4492516e-01
 -2.1907446e-01
  1.8322332e-01
 -4.9742779e-01
 -9.2583168e-01
 -5.8756334e-01
 -4.2612103e-01
 -9.4309795e-01
  7.3745233e-01
 -1.0510709e+00
  4.1063774e-02
 -7.3094422e-01
  6.0961646e-01
 -9.6510395e-02
 -2.8658751e-01
  4.4052777e-01
  2.6199963e+00
  6.1036777e-01
  4.0809813e-01
 -2.8246936e-01
  9.8165639e-02
  2.5969043e-02
 -3.3745989e-01
  8.7240793e-02
 -2.6158383e-02
 -2.7263871e-01
  5.1325858e-01
  4.6498533e-02
 -4.1214049e-02
  4.7904593e-01
  5.4963538e-03
  1.9399047e-01
 -5.1253322e-03
  6.8945654e-02
 -2.4990467e-03
 -7.2075636e-03
  2.2894766e-03
 -2.3185739e-01
  4.3137744e-01
  1.4610577e-01
  5.8332182e-02
 -9.5034711e-02
  1.0243675e-02
 -3.9373361e-02
  7.6202846e-01
  4.8425731e-01
  1.2140763e-01
  1.3504667e+00
 -1.6987760e+00
 -2.6657581e-01
 -2.3171741e-01
 -1.2881143e+00
 -1.4042270e-01
 -6.4750135e-01
 -2.9074669e-01
  7.7606601e-01
 -1.2410414e+00
  7.1583778e-01
 -1.2489581e+00
 -5.4421991e-01
 -3.3991516e-01
  2.0121069e-01
 -1.3591689e+00
  1.2821521e-01
 -1.8738063e-01
 -4.2224324e-01
 -4.4852826e-01
 -1.9102517e-01
 -6.6025749e-02
 -2.0170453e-01
 -2.5731319e-01
  7.1915805e-02
  1.2995105e-02
  9.2582440e-04
  1.1130990e+00
  2.3861296e+00
  4.2439818e-01
  4.4801998e-01
  1.0699004e+00
 -8.0975038e-01
  1.6977001e+00
 -3.5951526e+00
 -7.1431732e-01
 -8.6371154e-01
  9.4076604e-01
  4.2264763e-01
 -7.4467057e-01
 -6.4534605e-01
  2.2375299e-01
 -3.2842651e-01
 -2.4290472e-01
  1.4931777e+00
 -7.6869857e-01
  2.9201275e-01
 -1.1431170e+00
 -8.9251494e-01
  1.4972180e+00
  6.6705823e-02
 -1.2777370e-01
 -1.1671159e-01
 -9.7909319e-01
  4.3443957e-01
  2.0969027e-01
 -1.7665781e-01
 -1.1942203e-01
 -3.3455151e-01
 -5.4853666e-01
 -1.1122911e+00
  6.8109170e-02
 -2.8316185e-01
 -2.3189161e+00
 -1.2738845e+00
  6.8959701e-01
  8.9471757e-01
 -4.4334948e-01
 -1.3776062e+00
 -5.2478147e-01
  1.4527573e-01
  1.7060629e+00
 -1.5097259e+00
  6.4109856e-01
  1.4322939e+00
  2.5763566e+00
  6.7881393e-01
 -1.0679008e-01
  1.6226939e+00
  1.5801724e+00
 -5.4159291e-02
  1.2594196e+00
  1.7052892e-01
 -2.0584646e-01
 -4.7348565e-01
 -1.7185806e-01
  2.3872957e-02
 -1.5664274e-01
 -1.1875013e+00
  5.4858595e-01
 -1.3931284e+00
 -3.2472699e+00
 -1.3668672e+00
 -2.4532337e+00
 -2.6430700e+00
 -3.8849470e-01
 -8.3047405e-02
 -5.0737500e-01
 -3.8707495e-01
 -6.9000192e-02
 -2.1106118e-01
  5.5963285e-02
  2.8918517e-01
 -2.9597014e-01
  1.7314082e+00
  9.3753463e-01
 -1.3533241e-01
 -1.0292856e-01
  1.3428220e-01
  2.6517224e-01
 -2.6664427e-01
  7.1586007e-01
  2.5025770e-01
 -4.5960922e-02
  1.0862226e+00
  2.1757121e-01
 -2.1828075e-01
  2.7022544e-01
  4.1887708e+00
 -4.2861238e+00
  8.2763290e-01
  4.2314935e-01
 -5.1608181e-01
 -1.0198371e+00
  1.7896527e+00
 -3.1921530e-01
 -1.2611060e-01
 -3.4362400e+00
 -1.8382741e+00
  8.0235410e-01
  6.0813856e-01
  6.3147628e-01
 -4.3950748e-01
 -1.8616329e+00
 -2.9990089e-01
  7.2556645e-01
  1.0594203e+00
  1.0039506e+00
 -3.8443267e-01
  9.6666020e-01
  5.6407982e-01
 -2.0348208e-01
  2.3762693e-01
  1.3485394e+00
 -1.2353522e+00
 -2.9093409e-02
  6.2997758e-01
 -2.1978749e-01
  6.1560339e-01
  2.9165000e-02
 -5.0095433e-01
  5.2272123e-01
 -1.6409395e-02
  8.7211095e-02
  1.1721528e-01
  1.2376939e-01
 -2.8180391e-02
  8.1811480e-02
  5.2765217e-02
 -2.1510698e-01
  1.2616882e-01
  7.7509299e-02
  2.4469769e-01
  3.4128375e+00
 -4.6156746e-01
  2.2995241e-01
  6.7748207e-01
 -2.4915740e-02
  1.3292342e-01
 -5.7868861e-02
  1.6616993e-01
  2.9176695e-02
 -2.6941210e-02
 -5.2912489e-02
 -1.3581941e-01
 -6.8973675e-02
 -3.2988477e-03
 -1.0316906e+00
 -6.6373116e-01
 -2.7985135e-01
 -1.2747147e+00
  7.5530344e-01
 -7.6825035e-01
 -1.1908209e-01
  4.3692148e-01
  3.8868576e-01
  7.4359405e-01
 -8.3368999e-01
 -2.1065321e+00
  3.4016854e-01
 -1.1668774e+00
  7.8463584e-01
 -6.8019181e-01
  1.0553573e-01
 -1.9293286e-01
  1.6559125e-01
  2.0282975e-01
 -7.0811468e-01
  6.4095640e-01
  1.1483903e+00
  1.7137648e-01
  7.4907619e-01
 -3.2435957e-02
  3.7368166e-01
  1.4420842e-01
  7.0430838e-02
  4.7978338e-02
 -1.2138675e-01
 -2.0701431e-01
  3.3592772e-01
  2.3715591e-01
 -6.6018987e-01
 -4.7286522e-02
 -9.8357683e-01
  6.4443285e-03
 -2.4032915e+00
 -8.8680983e-02
 -3.2416243e-02
  5.7930052e-01
  1.0960359e-01
  3.0691153e-01
 -2.7193430e-01
 -2.2869620e-02
  4.0199152e-01
 -1.1449336e-02
 -3.4380111e-01
  4.0630910e-01
 -3.2318157e-01
 -1.2158087e-01
 -1.3584004e-01
 -1.4860748e-01
  3.0569634e-01
 -1.6048312e-02
 -1.0818042e-01
  4.5965705e-02
  3.1715639e-02
  1.3055439e-01
 -1.8718716e+00
  5.0534695e-02
  9.8007828e-02
  9.6764165e-01
 -5.3296870e-01
  5.9830809e-01
  1.9462660e-01
 -1.6059408e+00
  7.3530614e-01
 -1.2030837e-01
  1.2163184e+00
  2.8821614e-01
  1.1123190e+00
 -5.5117947e-01
 -9.5182079e-01
 -8.0592096e-02
  6.1005050e-01
  1.1524024e+00
 -2.9323864e-01
 -5.0054425e-01
 -1.5308720e-01
  2.4048750e-01
  5.0876248e-01
  8.3859943e-02
  4.0868755e-02
 -2.1295035e-01
 -2.2720833e-01
  8.2103416e-02
 -1.2014344e-02
 -6.4157963e-02
  3.6178401e-01
 -1.1384925e+00
 -1.0968926e+00
 -2.2012484e+00
  8.1174129e-01
 -3.5057566e-01
  1.7377262e-01
  3.3425872e+00
  1.3429118e+00
  2.6954861e+00
  1.8695214e+00
 -8.2709128e-01
  2.5345960e+00
 -6.4499456e-01
  2.0818791e+00
 -2.5918508e-01
  1.3014893e-01
 -3.7786677e-01
  8.7484711e-01
  1.3336776e+00
 -3.4230804e-01
  4.1533700e-01
 -1.8428595e+00
  8.9753962e-01
  1.6296335e+00
  7.7647315e-03
  1.1185580e+00
  4.9876172e-02
 -4.9367318e-01
  1.7489539e-01
  1.9668192e+00
 -9.2049551e-01
 -9.1214728e-01
 -6.9343340e-01
  1.5384219e+00
  9.1160268e-01
  2.8162503e+00
 -3.6913320e-01
 -5.4959542e-01
  4.8347708e-02
  2.7618948e-01
  1.0281459e+00
  7.1681780e-01
  2.5662109e-01
  1.1797899e-01
  5.3752816e-01
  3.0227017e-01
 -9.7101897e-01
  1.2675940e+00
  3.4527096e-01
  6.7194331e-01
  6.1491650e-01
  3.9636949e-01
  6.8014175e-01
  3.6871921e-02
  3.7499834e-02
  1.1744575e-01
  2.6998106e-01
  1.2920496e-01
 -3.3119120e-02
 -2.6439374e-02
  2.6519987e-01
  5.2182180e-01
 -8.6471921e-01
  1.4083009e+00
 -5.4780446e-02
 -2.7334762e-01
 -1.9119793e+00
 -6.6142547e-01
  9.6877530e-02
 -3.4949739e-02
  7.2444558e-01
  5.6116772e-01
 -3.5932440e-02
  2.0955230e-01
  4.6258688e-01
  8.1580114e-01
  8.0710149e-01
 -2.8995413e-01
  5.1029986e-01
  4.5300934e-01
  1.3721034e-01
  6.3725747e-02
 -3.0797982e-01
 -2.5761375e-01
 -5.8237195e-01
 -4.2376742e-01
  9.9996544e-02
 -2.7459800e-01
 -6.0965592e-01
  2.2605450e+00
  1.5334492e+00
  7.9283786e-01
 -1.0060239e+00
 -8.4442121e-01
 -1.3136557e+00
  1.3165079e+00
 -2.3592145e+00
 -1.4926606e+00
  1.5370646e-01
 -4.5899901e-01
  1.7426704e+00
  4.1214713e-01
 -2.5672088e+00
 -1.6128219e+00
  7.3603022e-01
  7.7581066e-01
  2.2533946e+00
 -1.4668174e+00
 -1.9580855e+00
  1.4749054e+00
 -3.9154772e-02
  1.2177544e+00
  2.8706390e-01
 -3.4916478e-01
 -7.3038340e-01
  4.3161884e-01
  3.5944650e-01
 -7.1257651e-01
  5.0079530e-01
  1.1691988e+00
  5.1663768e-01
 -3.0467853e-01
 -2.2485328e+00
  1.9870292e+00
 -1.2530110e+00
 -4.1704315e-01
 -1.1326028e+00
  8.5594398e-01
 -4.4695073e-01
 -7.7774680e-01
 -8.7963361e-01
 -1.1564181e+00
 -5.1312894e-01
  8.1602752e-02
 -5.9284514e-01
  6.2689096e-02
  3.3513254e-01
 -2.5074747e-01
  5.5951858e-01
 -7.9490972e-01
 -3.3002955e-01
  6.6872305e-01
 -4.0255016e-01
  4.6007511e-01
 -4.5019977e-02
  2.1202654e-01
  4.1582039e-01
 -9.0543652e-01
  8.9478570e-01
  2.6959729e-01
 -4.2912397e-01
 -1.1712682e+00
  2.5742354e-03
 -1.2278689e-01
  6.2197483e-01
  5.5522054e-02
  5.4557666e-02
  7.0129687e-01
 -2.0694980e-02
  1.0229868e-01
  7.3891699e-01
 -3.3735347e-01
  2.9891333e-01
  6.1686467e-02
  7.1615381e-03
  1.3648872e-01
 -7.6994047e-02
 -1.3986769e-02
  9.9355593e-02
  3.0660412e-01
  1.0720429e-01
 -4.1190851e-01
  5.6523800e-02
 -1.4055012e-01
 -5.8830604e-02
 -1.4519173e-01
 -1.3921998e-01
  5.8664899e-02
  1.1311016e-01
 -1.2722130e+00
 -2.6534998e-01
  1.6027026e-01
  1.7138873e-01
 -6.3213152e-01
  1.0686235e+00
 -2.2985713e-01
  1.1394756e+00
  1.4078274e+00
  1.6080017e-01
  4.6881968e-01
 -7.6965046e-01
  9.8604143e-01
  2.7191788e-01
  1.1570613e+00
  3.1081980e-01
 -8.7373149e-01
 -9.6100456e-01
  2.3074012e-01
 -5.9359770e-02
 -5.6241669e-02
  2.0894639e-01
 -1.3937757e+00
  2.2620118e-01
 -1.0677499e+00
  7.9722509e-02
  8.8971965e-02
  6.5729493e-01
 -1.0580021e-01
  2.4602329e-02
  9.5478427e-03
  1.0746120e-01
 -4.3989325e-01
 -9.0355772e-01
 -3.1991214e-01
 -2.9087663e-01
 -2.2222382e-01
  1.0533041e+00
 -4.9753994e-01
  4.9094453e-01
 -2.9966730e-01
  1.0650541e-01
  2.9902384e-01
 -4.7209495e-01
  1.8489742e-01
 -2.2098505e-01
  8.4721291e-01
 -3.5815135e-01
 -7.9218602e-01
 -6.0416780e-02
  6.4872339e-02
 -3.0374503e-02
 -3.4729221e-01
 -2.9311213e-01
 -1.2150623e+00
 -2.4944060e-01
  1.3630205e-01
  7.7688497e-01
 -2.1641223e-01
  2.5575709e-01
  9.6280426e-01
 -6.1828023e-01
 -1.4673689e-01
  1.8826267e-02
  1.5508679e-01
 -8.9240283e-01
  3.2149949e+00
 -1.8786613e+00
 -1.7251840e-01
 -5.4551053e-01
 -6.2657970e-01
 -1.4423987e+00
 -9.1450876e-01
 -1.9971747e+00
 -7.5115758e-01
 -6.6729504e-01
 -4.6658179e-01
  1.4397705e+00
 -1.7702538e-01
 -9.4391727e-01
  5.5914130e-03
  2.2526836e-02
  1.5732907e+00
 -1.1188977e+00
 -1.0295659e+00
 -1.6713928e-03
  4.5755929e-01
  9.6653181e-01
  5.2773857e-01
  1.4978960e-01
  2.7803156e-01
  1.5673777e-01
  1.4305128e-01
 -6.0700262e-01
  8.4899199e-01
 -2.3048276e-01
 -1.8652622e-01
 -4.6997741e-01
 -1.4525293e-02
  4.2928740e-02
 -3.7602563e-03
  1.3841191e-01
 -5.1537526e-01
 -1.3696429e+00
  7.6075673e-02
  1.4170028e-01
  6.6776037e-02
  2.5156581e-01
  1.2472380e-01
  1.1886409e-01
 -6.5233663e-02
 -4.4827085e-02
 -6.8633579e-02
  2.5935568e-02
 -2.2033798e-02
 -5.6856811e-02
  1.3703625e-01
 -1.1937734e-01
 -2.4856806e-01
 -9.8973036e-02
 -8.2766557e-01
 -4.3154484e-01
 -3.9729849e-01
  9.1850972e-01
  2.6074055e-01
  5.9846216e-01
  3.0714612e+00
  3.5881299e-01
 -2.1531773e-01
 -1.5090400e+00
  1.2893747e+00
  1.0929842e+00
  7.5204045e-01
  2.1475746e-01
  1.1276747e+00
  1.9512135e+00
  3.9592963e-01
  1.6508124e+00
  1.0102730e-01
  1.6647507e+00
  1.9589063e+00
  4.5353064e-01
  9.0718979e-01
  3.0189741e-01
  5.9428948e-01
  1.9519262e-01
 -1.5121816e-01
  7.1673506e-01
  1.1070226e-01
 -4.8721516e-01
  6.0217804e-01
  1.2145636e+00
 -8.4203728e-02
 -4.3911207e-01
  9.2826408e-01
 -7.1290213e-01
  6.3421357e-01
 -3.4487493e+00
  1.1000851e+00
 -1.4030677e-01
  2.9035199e-01
  1.6896311e+00
 -5.9776515e-01
 -1.7565437e-02
 -1.4756377e+00
 -1.5563938e-01
 -6.5021026e-01
  7.7135861e-01
 -4.1800329e-01
 -1.9720484e+00
  4.3377168e-02
 -1.9057066e+00
  2.0271309e-01
  1.7997649e-01
 -1.2153937e+00
 -1.9611204e-01
 -4.6363619e-01
 -1.8434154e+00
 -1.0618703e-02
 -2.2823295e-01
 -4.7612694e-01
  7.1903771e-01
 -6.5773070e-01
  3.4679466e-01
 -4.3035799e-01
  2.2448280e+00
 -7.8863531e-01
 -5.6833033e-02
 -4.0970588e-01
 -8.8748783e-02
  6.8808770e-01
  1.5085649e+00
 -8.5018927e-01
 -4.5499295e-01
  4.0694025e-01
 -2.7485549e-01
 -2.1408601e-01
 -3.2909516e-02
 -1.1520594e+00
 -2.2497661e-01
 -9.1053152e-01
  2.6226377e-01
 -9.9352384e-01
 -7.3095965e-01
  1.1032015e+00
 -2.3008460e-01
 -4.4146121e-01
  5.9573007e-01
 -1.5686788e-01
 -2.6735900e-02
 -1.7571086e+00
 -1.4645964e+00
 -1.1525599e+00
 -1.7010000e+00
  1.5151017e+00
  2.0462000e+00
 -1.8997350e+00
 -1.7949913e+00
 -8.8050354e-01
 -6.5231115e-01
  6.4144540e-01
 -3.8342297e-01
  4.3372121e-02
 -1.9843580e-01
 -1.6157073e+00
 -1.1411607e+00
 -1.5915742e+00
  1.8090117e+00
 -9.1207832e-01
  1.9160135e+00
 -1.4349086e+00
  1.5368357e+00
  1.5421309e+00
  1.6266214e+00
 -1.7348130e+00
 -6.1979616e-01
  1.7588383e+00
 -9.8524636e-01
  1.0034937e+00
  1.8908342e+00
 -2.0167654e+00
 -2.7240984e+00
 -1.6963512e+00
 -2.1851559e+00
  1.8234600e+00
  1.4953375e+00
 -2.2645695e+00
 -3.8869151e-01
 -2.5744888e-01
 -7.4928021e-01
  5.7554209e-01
 -3.2138059e-01
  9.2682886e-01
  6.5577120e-02
 -1.4187067e+00
 -1.4101140e-01
 -1.8735332e+00
  2.2474980e+00
 -9.0132916e-01
  3.0913174e+00
 -1.7700186e+00
  2.6912148e+00
  5.9324318e-01
  3.2944129e+00
 -1.8904262e+00
 -1.0246572e+00
  9.0879375e-01
 -2.0661194e+00
  9.7464538e-01
  2.9294615e+00
 -3.6835297e+01
  6.1250377e-01
 -4.4383049e-02
 -3.4126791e-01
  5.6999624e-01
  9.5090199e-01
  3.9198004e-02
 -2.5064975e-02
 -8.6152196e-01
 -3.9031225e-01
 -8.6639620e-02
 -6.7921865e-01
  2.0947452e+00
 -5.3993300e-02
  1.9494396e+00
 -5.3321962e+00
  1.9142085e-01
 -1.6423296e+00
  6.9060683e-01
  2.9435894e+00
 -1.6333230e+00
 -1.7440959e+00
  7.9003489e-01
 -3.0367236e+00
  3.7077794e+00
  4.9936190e-01
 -2.5858682e-01
 -1.6103190e+00
 -6.3663304e-02
  1.4287482e-01
  2.8679138e-01
  5.1396787e-01
 -1.8185799e+00
  2.6978657e-01
 -6.8672472e-01
 -1.7586966e+00
  1.4577625e+00
 -1.2819252e+00
  8.4480804e-01
  2.0773921e+00
  1.1100772e-01
  1.3027898e+00
 -1.6376530e-01
 -1.0126916e+00
 -1.2677759e+00
  3.1971614e+00
  2.3095288e+00
 -4.0801663e+00
 -6.8101519e-01
  2.7468634e+00
 -8.0643195e-01
 -3.4394212e+00
 -7.8425336e-01
  1.8724991e+00
  2.1764126e+00
 -6.1020041e-01
  2.6937001e+00
  1.9209467e+00
 -1.0362890e+00
  6.2107730e-01
 -7.6838177e-01
  1.3052394e+00
 -1.5069679e+00
  6.1685234e-01
 -5.3208995e-01
  1.9161038e+00
  9.8222786e-01
 -1.1216213e+00
  1.1168298e-01
  1.9267355e-01
 -7.4119407e-01
 -6.7580831e-01
  1.5554079e-02
 -4.3773949e-01
  2.0372956e+00
  2.5321662e+00
  1.5563650e-02
  5.9324914e-01
  9.7858340e-01
  4.5279521e-01
 -9.6886343e-01
 -7.4912095e-01
  1.5741745e-01
 -1.8999586e+00
 -2.0873852e-01
  1.8260202e+00
 -3.1322000e+00
 -1.1212186e+00
  1.2670859e+00
  1.1867319e+00
  5.1612037e-01
  1.1933570e+00
 -1.0134372e+00
 -8.8056672e-01
  3.2757809e+00
 -5.0815153e-01
  4.6788983e+00
 -8.3952257e-03
  3.4349461e+00
 -4.0094402e-01
 -8.6220229e-01
  2.9791322e+00
  1.4417444e+00
 -3.1474366e+00
  9.9115908e-01
 -2.0407023e+00
  1.0052931e+00
  3.2642596e+00
 -1.4109434e+00
 -1.1720095e-01
 -5.0117475e-01
 -1.8758297e+00
  2.8172317e+00
 -2.1331301e+00
 -1.7228298e+00
  1.7848785e+00
 -9.2093325e-01
 -8.2410514e-01
 -1.2991248e+00
  1.6972624e-01
 -1.8146608e+00
  4.4662395e-01
 -2.0372236e+00
  3.7512479e+00
  1.5717568e+00
  2.4369717e+00
  1.1442614e-01
  3.5278526e-01
  1.9353325e+00
  3.2081841e-03
 -5.9078168e-02
 -8.1396848e-02
  2.7438700e+00
  1.1908233e+00
  2.7660356e+00
 -2.4872060e+00
  4.6238452e-02
  4.0553591e-01
 -7.1980423e-01
 -2.0090699e-01
  6.7441255e-01
  1.2565870e+00
  3.2263571e-01
  1.3895156e+00
 -1.7470266e+00
 -1.2962115e+00
 -2.7052944e+00
 -9.9226630e-01
  1.9976135e+00
  8.4076619e-01
 -1.5438586e-01
 -1.3490881e+00
 -1.1136681e+00
 -3.6580676e-01
 -9.8929268e-01
 -5.0848305e-01
 -3.3173403e-01
  3.8773842e+00
  1.4228342e+00
  4.7317713e-02
  6.1895937e-01
 -1.4672242e-01
  1.6641380e+00
  8.9895421e-01
  2.1012101e+00
  9.7153556e-01
 -5.6232268e-01
  2.3379700e-01
 -9.9640602e-01
 -2.4539688e+00
 -7.0798725e-01
  4.7269888e-02
  2.0461512e-01
 -3.4322283e-01
  6.1990494e-01
  1.6884615e+00
 -3.4243491e+00
  4.2038266e-02
 -2.1908998e-01
  3.6778030e-01
 -1.4466144e+00
 -7.3817098e-01
 -1.8551377e+00
 -5.4077417e-01
 -1.2870109e+00
  1.3502001e+00
  1.3849397e+00
 -8.2803673e-01
 -8.3411658e-01
 -4.8403427e-01
  1.5991664e+00
 -1.6588561e-01
  1.2382644e+00
  8.6185209e-02
 -2.0341787e+00
 -1.0874703e+00
 -9.3280137e-01
 -3.7680563e-01
  2.4719793e-01
 -5.1180780e-01
  7.7078044e-01
  2.6985833e-01
  1.9059641e+00
 -8.4631586e-01
  2.1386073e+00
  5.5538768e-01
 -2.8015378e+00
  1.4897408e+00
  7.6060477e-03
 -2.4261243e+00
 -2.3819103e+00
 -2.6743863e+00
  3.3568105e-01
  1.6319510e+00
 -1.8436542e+00
 -1.2555896e+00
  3.7788582e-01
  1.9808198e+00
  8.1645656e-01
 -4.9377403e-01
  1.6757665e+00
  1.5370113e+00
  4.9140924e-01
 -3.2957506e+00
 -1.1032324e+00
 -1.9053645e-02
 -4.8238435e-01
  1.0024799e+00
  1.1552192e+00
  1.5396007e+00
  1.1951762e-01
 -7.0216334e-01
 -1.9566084e-01
 -6.9659060e-01
 -9.2300308e-01
 -4.7919112e-01
 -1.3722906e+00
 -4.7876933e-01
 -6.6701227e-01
 -3.5207075e-01
 -1.6728576e-01
 -1.1897045e+00
 -9.9617916e-01
  1.0582840e+00
 -7.4014020e-01
 -1.8265872e+00
  1.9315030e-02
  1.8990002e+00
 -1.5342630e-01
  5.5838192e-01
 -1.0893201e+00
  1.0835218e-01
 -2.4243233e-01
  1.0066584e+00
 -1.1562582e+00
  9.1714764e-01
  7.2911519e-01
 -3.2810628e-01
 -6.2063295e-01
 -3.3594778e-01
 -6.2825239e-01
 -6.0262090e-01
  2.0752177e-01
  2.3482642e+00
  1.7275236e+00
  4.8733574e-01
  1.6225526e-02
  1.0994053e-01
 -3.9240274e-01
  1.8154179e+00
  5.7749444e-01
  8.5137451e-01
  5.9190887e-01
  2.5111711e+00
  1.2455766e+00
 -2.1628325e+00
 -4.1149518e-01
 -3.5955524e-01
 -1.0358255e+00
  1.5797300e+00
 -3.3866218e-01
 -1.4268996e+00
  7.7597141e-01
  8.2980347e-01
 -6.9721574e-01
 -1.1171452e+00
 -1.9544502e-01
 -9.7827601e-01
  1.0747747e+00
 -6.4352518e-01
  1.2209680e+00
  9.7530365e-01
  4.9785551e-02
 -6.8571347e-01
  6.8323427e-01
 -8.6669225e-01
  2.2168937e+00
  1.1248314e+00
 -1.1227367e+00
  1.9533960e+00
  1.7664109e+00
  3.0308084e+00
  3.1146675e-01
  1.2873566e-01
 -8.6584145e-01
  2.0587862e+00
 -9.4370097e-01
  5.3480065e-01
 -1.5045604e+00
 -4.3105301e-01
 -5.6825137e-01
 -1.0618271e+00
  1.1566041e-01
  5.8538342e-01
 -5.7454950e-01
 -9.0853441e-01
  1.2471187e+00
 -2.1056252e+00
 -1.2843037e+00
  1.4881339e+00
 -1.9885287e+00
 -4.2557269e-01
 -7.2323304e-01
 -8.9675134e-01
 -3.5831738e-02
 -2.0392678e+00
  5.7540014e-02
 -1.2922435e+00
  1.7840229e+00
 -2.0988171e+00
  2.8788593e+00
  8.3195603e-01
 -3.7029904e-01
  2.4574213e+00
 -3.4875896e+00
 -4.1118029e-01
  1.2997419e-01
  6.1056048e-02
  1.1987268e-01
  1.8391480e+00
 -3.5863706e-01
  8.4335876e-01
  2.3597243e+00
  1.5507439e+00
 -1.4538765e+00
  9.1038430e-01
 -4.6191952e-01
  1.1078380e+00
  2.2767916e-01
  1.8868415e+00
 -6.9021410e-01
 -1.8631929e-01
 -2.2332931e+00
  2.2787638e+00
  7.0464480e-01
  2.5576642e-01
  5.0179881e-01
 -7.4336523e-01
 -2.1416681e-02
 -1.2269063e-01
 -5.3560036e-01
 -7.0459414e-01
 -4.8687469e-02
  7.9805392e-01
  1.4079441e+00
  2.0451477e+00
  9.9898201e-01
 -1.3514427e+00
  1.2937102e+00
  7.7807814e-01
  9.4982898e-01
  2.7523823e+00
  1.9277910e+00
 -1.0739323e+00
  5.3006148e-01
  1.2083989e-01
  1.7370135e+00
 -1.7240525e+00
  1.0679024e+00
  1.5547822e+00
 -2.8035097e+00
  1.1357003e+00
  1.1610246e+00
 -3.9002516e+00
  1.8624441e-01
  1.7549576e+00
  2.6961917e-01
 -7.4273419e-01
 -1.6318032e+00
  4.2972490e-01
  2.0535257e+00
 -6.8365455e-02
  1.4682336e+00
 -3.5677078e-01
 -2.3355758e+00
  2.6525919e+00
 -1.5745082e+00
  8.4263375e-03
  3.9595422e-01
 -4.0978226e-01
  2.3596172e+00
  7.9844624e-01
 -1.3542116e-01
  5.1266646e-01
  1.1703674e+00
 -5.5536431e-01
  5.6829262e-01
 -2.4158895e+00
 -1.8942072e+00
  1.2918812e+00
 -1.2130206e+00
  9.3212336e-01
 -1.9992234e+00
  2.1111641e+00
  9.8869187e-01
 -1.0174264e+00
  9.6969986e-01
  9.0597665e-01
  1.6115998e+00
 -4.2090487e-01
  1.3693959e-01
 -6.2917274e-01
  1.0175153e+00
 -2.4187653e+00
  1.8541381e-01
 -3.9300780e+00
  2.3019083e-01
  1.3392521e+00
  2.5627270e+00
 -1.3162569e+00
 -1.7236118e+00
  4.5341951e-01
  2.5189066e-01
  2.4814012e+00
  8.2490891e-01
 -5.0566775e-01
 -2.3300989e+00
 -9.2958081e-01
  4.3048209e-01
 -8.0755544e-01
  6.4547580e-01
 -7.8040701e-01
  2.7939589e+00
 -1.4811823e+00
 -1.9760208e+00
  1.5728019e+00
  1.6302504e-02
  1.8157126e+00
 -1.7136244e+00
 -1.1765584e+00
 -2.3720820e+00
  1.4361687e-01
 -2.4619552e-01
 -1.8178483e+00
  2.6517131e+00
 -1.5473752e-01
  2.6829556e-01
 -1.1112901e+00
 -1.4352334e+00
 -5.4443395e-01
  2.3207977e+00
 -1.4999568e-01
 -5.3923577e-01
  4.8070261e-01
 -2.6316597e+00
 -4.8149773e-01
 -4.5413554e-01
 -1.6440274e+00
  3.6822820e-01
  1.2758123e+00
 -3.7954268e-01
 -4.7029945e-01
 -1.2108860e+00
 -1.9657857e+00
 -5.3428644e-01
 -5.8846140e-01
 -5.8655161e-01
  3.2898742e-01
 -1.0333188e+00
 -1.2962044e+00
 -1.0131288e+00
 -5.7021868e-01
 -5.1647985e-01
  2.4330949e-02
 -1.1965090e+00
  8.9480001e-01
 -3.9536214e-01
 -6.1232686e-01
  2.4802322e+00
 -9.5388377e-01
  1.1283981e+00
  1.3082987e+00
 -4.9577972e-01
  1.4162571e+00
  1.0156726e+00
 -3.2029793e-01
 -6.9771326e-01
  7.4152577e-01
 -7.7957261e-01
  6.9666125e-02
  9.5806473e-01
 -1.4195952e+00
  5.6022072e-01
  1.2862012e+00
  2.0767875e+00
  7.9696858e-01
 -4.9285012e-01
  1.5399802e-01
  3.5866782e-01
 -2.8731673e+00
 -8.0260582e-02
  8.1256050e-01
 -1.3902404e+00
 -1.9128881e+00
 -3.7487984e+00
 -1.5247852e+00
  1.5210013e+00
 -1.1091976e+00
  1.1944017e+00
  1.8742157e+00
  3.3509295e-02
 -9.3974000e-01
 -4.0045843e-01
  2.4191658e-01
  1.1526685e+00
 -6.1112382e-03
 -3.2909814e-01
 -3.1478849e-01
  2.1606766e-01
 -6.0708314e-02
  1.3541603e+00
  1.7522851e+00
  6.8356143e-03
  2.3194981e-01
  6.0015929e-01
  8.4741104e-01
 -5.1578206e-01
 -1.6371902e+00
 -1.3887693e-01
 -8.7027329e-01
  2.2594304e+00
  2.1957336e-01
  1.4678787e+00
  1.4548659e+00
  1.2961509e+00
  1.9396569e+00
 -5.4073203e-01
  1.5523932e+00
 -2.4573157e+00
  5.6326568e-01
 -1.3361683e+00
  1.5700806e+00
 -5.4611415e-01
  4.4171149e-01
 -2.6180634e-01
  1.0147804e+00
  9.3925960e-02
 -1.0732130e+00
 -4.4463843e-01
 -7.8844094e-01
  7.4482208e-01
 -3.9397466e-01
 -8.1490874e-01
 -3.6534758e+00
  1.0467387e+00
  6.1813456e-01
  5.0708467e-01
 -5.3923535e-01
 -1.0848494e+00
 -1.6705215e+00
 -1.6883961e+00
  1.2576354e+00
 -1.8516873e+00
 -9.0598553e-01
 -1.8512680e-01
 -5.7273710e-01
  7.5523436e-01
 -1.0478295e+00
 -1.3962405e+00
 -1.4090194e+00
 -2.5215602e-01
 -1.9773785e+00
 -1.1020883e+00
 -3.4463558e-02
 -2.4312901e+00
 -1.6239021e+00
  2.5418049e-01
  2.9971359e+00
  1.7407306e-01
  4.1396326e-01
  4.4365826e-01
  1.0932783e+00
 -1.1873305e+00
  3.0049996e+00
  8.6853415e-01
 -5.9028792e-01
 -3.5598466e-01
  8.8392931e-01
  3.7919042e-01
 -2.4031420e+00
  1.3120302e+00
  3.3614808e-01
 -1.8437436e+00
  1.0266161e+00
 -1.2229392e-01
 -3.2512331e+00
 -9.0937728e-01
 -8.0036873e-01
  4.6507674e-01
  1.0629066e+00
 -7.6038545e-01
 -7.3381132e-01
 -4.2279607e-01
 -1.1996201e+00
  2.0377593e+00
  1.4808849e-01
 -1.4798825e+00
  4.9017632e-01
  7.2967821e-01
 -1.7676465e-01
  6.0463762e-01
 -1.3800124e+00
 -1.6828784e+00
  1.4898276e-01
 -1.5183216e-01
 -2.4693854e+00
 -1.9613019e-01
 -1.4855520e+00
  8.1174898e-01
 -3.6978176e-01
 -1.0316039e+00
  5.2572799e-01
 -1.7228684e+00
 -7.9271662e-01
  5.4799038e-01
  1.4304607e-01
 -1.3451819e+00
  2.7938697e-01
 -1.3189716e+00
 -2.6605430e-01
 -4.1649210e-01
 -5.8724338e-01
 -1.0937388e+00
 -1.1170527e+00
 -8.4410727e-01
 -7.8018814e-01
 -1.0604250e-01
 -9.7860813e-02
 -9.8884188e-02
  5.9288792e-02
  5.4710138e-01
  1.0266157e+00
  4.3067586e-02
 -1.2210000e+00
  2.2200257e-01
  1.4436417e+00
  7.4439639e-01
 -2.6420021e-02
  2.2642989e-01
  7.4928039e-01
  5.0027037e-01
  4.3461233e-01
 -2.5805471e+00
  9.5945030e-01
  5.9722018e-01
 -2.7648940e+00
 -1.5190624e+00
  5.8639860e-01
  1.4918714e+00
 -6.6052228e-01
  8.5849184e-01
 -1.6059003e+00
  7.0644826e-01
 -9.5860094e-01
  1.7600195e+00
  1.0280409e+00
  3.1221998e-01
  1.7880599e+00
  3.6731787e-02
  2.2080393e-01
 -2.6059704e+00
  4.6243843e-01
  3.9923972e-01
  4.4363019e-01
  1.0832965e+00
  1.7325756e-01
 -1.2690458e-01
  7.3682390e-02
  5.9524757e-01
 -3.5539181e+00
  2.3299889e-01
  1.4430648e+00
 -9.5201796e-01
  3.3864811e-01
 -5.8970076e-01
  2.3787158e+00
  1.1935670e+00
  1.4406605e+00
 -5.9462178e-01
 -4.7986889e-01
  3.1179221e-02
 -2.2403944e+00
 -9.9269712e-01
  1.5328772e+00
 -1.0601088e+00
  1.4795324e+00
 -1.9308110e-01
 -9.5330811e-01
  6.2525153e-01
  7.9394150e-01
 -2.1809914e+00
 -3.6431860e-02
 -7.5618124e-01
 -7.7312386e-01
  9.5034432e-01
  3.1000996e-01
  7.9860926e-02
  4.4009066e-01
  5.0927180e-01
  9.7115800e-02
  3.6120421e-01
  2.8378904e-01
  2.3578447e-01
  9.3469149e-01
  8.0047369e-02
 -5.3514403e-01
  4.1414419e-01
  7.4452090e-01
  6.0888982e-01
  4.9880400e-01
 -4.4454253e-01
  1.2657800e-01
  2.6687143e+00
 -2.4359148e+00
 -1.1936080e+00
  2.1456790e+00
  7.8303736e-01
  2.0144854e+00
  7.5972521e-01
 -3.2781416e-01
  1.3904252e+00
  1.3264252e+00
  8.4036005e-01
 -3.6218205e-01
 -8.7677145e-01
  1.4733567e+00
  1.9600348e+00
  8.6443448e-01
  4.0002342e-02
  7.9849951e-02
 -4.5877239e-01
 -1.9422722e+00
  1.1793073e+00
  1.5382874e+00
 -1.1124581e+00
 -3.7417835e-01
 -6.2537491e-01
 -1.7059724e+00
  1.2850859e+00
  1.5857557e+00
  1.6656910e+00
 -3.7257788e-01
 -1.1398038e+00
  1.5591021e+00
  5.1734054e-01
 -1.8931594e+00
  1.5661968e+00
 -7.4244507e-02
 -6.3611543e-01
 -9.8910010e-01
  1.8346542e+00
  1.3167614e-01
  8.7277174e-01
 -8.1086200e-01
 -5.9018612e-01
 -4.4034904e-01
  2.1793399e+00
 -1.8706551e+00
 -1.5143508e-01
 -3.6456507e-01
 -1.2298895e+00
 -1.5708538e+00
  1.1821396e+00
  2.4680005e-01
 -6.9783312e-01
  2.1052222e+00
 -9.7831172e-01
  2.1345696e+00
 -3.1619020e+00
 -6.8094134e-01
  6.8679295e-02
  1.4304061e+00
  1.1640660e+00
  2.0682528e+00
 -4.2844304e-01
  8.5576540e-03
 -7.8580439e-01
  1.7739011e+00
 -1.8331922e+00
 -4.1128764e-01
 -8.1270808e-01
  1.1027478e+00
  1.4841664e+00
  1.4308372e-02
  3.1378412e-01
 -9.4784731e-01
  2.1224251e+00
  1.6233279e-01
 -2.8892314e-01
 -1.2373943e+00
  5.6858736e-01
  7.6706950e-03
  7.6706950e-03
  7.6706950e-03
  7.6706950e-03
  7.6706950e-03
  3.6895197e-02
  3.6895197e-02
  3.6895197e-02
  3.6895197e-02
  3.6895197e-02
  1.3911884e-02
  1.3911884e-02
  1.3911884e-02
  1.3911884e-02
  1.3911884e-02
  8.8648982e-03
  8.8648982e-03
  8.8648982e-03
  8.8648982e-03
  8.8648982e-03
  4.7647851e-03
  4.7647851e-03
  4.7647851e-03
  4.7647851e-03
  4.7647851e-03
  5.5683572e-03
  5.5683572e-03
  5.5683572e-03
  5.5683572e-03
  5.5683572e-03
